
\data\
ngram 1=25
ngram 2=39
ngram 3=4

\1-grams:
-0.6368221	</s>
-99	<s>	0.02121957
-1.113943	ENG	-0.0646951
-0.8920946	PLACE	-0.6333314
-1.591065	ขาย	0.03760995
-1.591065	ข้อมูล	0.01128101
-1.591065	จ่าย	-0.03702367
-1.591065	ซื้อ	0.03760995
-1.591065	ดู	-0.03702367
-1.591065	ตัวเอง	0.06563868
-1.591065	ทอย	-0.03702367
-1.591065	ประกัน	-0.03702367
-1.591065	ยอม	-0.03702367
-1.591065	ลูก	0.06563868
-1.591065	ลูกเต๋า	-0.03702367
-1.591065	สร้าง	0.01128101
-1.591065	หนึ่ง	-0.03702367
-1.591065	เงิน	0.06563868
-1.591065	เทิร์น	0.06563868
-1.591065	เปลี่ยน	-0.03702367
-1.591065	เริ่ม	-0.01354257
-1.591065	แพ้	0.06563868
-1.591065	แหก	0.01128101
-1.591065	โกวาจี	0.06563868
-1.290035	โฉนด	-0.2353913

\2-grams:
-2.232996	<s> ENG
-0.7631741	<s> ขาย	-0.3055776
-2.232996	<s> จ่าย
-0.9319661	<s> ซื้อ	-0.1806389
-2.232996	<s> ดู
-2.232996	<s> ทอย
-2.232996	<s> ประกัน
-2.232996	<s> ยอม
-2.232996	<s> สร้าง
-2.232996	<s> เปลี่ยน
-2.232996	<s> เริ่ม
-2.232996	<s> แหก
-2.232996	<s> โกวาจี
-0.4336556	ENG </s>
-1.454845	ENG ENG
-0.085629	PLACE </s>
-1.278754	ขาย PLACE	0.2121615
-1.278754	ขาย โฉนด
-0.9777236	ข้อมูล PLACE
-0.9777236	จ่าย เงิน
-1.278754	ซื้อ PLACE	0.3882527
-1.278754	ซื้อ โฉนด
-0.9777236	ดู ข้อมูล
-0.9777236	ตัวเอง </s>
-0.9777236	ทอย ลูกเต๋า
-0.9777236	ประกัน ตัวเอง
-0.9777236	ยอม แพ้
-0.9777236	ลูก </s>
-0.9777236	ลูกเต๋า หนึ่ง
-0.9777236	สร้าง PLACE
-0.9777236	หนึ่ง ลูก
-0.9777236	เงิน </s>
-0.9777236	เทิร์น </s>
-0.9777236	เปลี่ยน เทิร์น
-0.9777236	เริ่ม ENG
-0.9777236	แพ้ </s>
-0.9777236	แหก PLACE
-0.9777236	โกวาจี </s>
-0.2575643	โฉนด </s>

\3-grams:
-0.1497623	ขาย PLACE </s>
-0.2498775	ซื้อ PLACE </s>
-0.2747011	<s> ขาย PLACE
-0.4259687	<s> ซื้อ PLACE

\end\
