
\data\
ngram 1=27
ngram 2=41
ngram 3=4

\1-grams:
-0.5713912	</s>
-99	<s>	0.01722804
-1.311754	ENG	0.1427629
-1.010724	PLACE	-0.4892603
-1.612784	ขาย	0.04585293
-1.612784	ข้อมูล	0.02171925
-1.612784	คุก	0.1127997
-1.612784	จ่าย	-0.01213902
-1.612784	ซื้อ	0.04585293
-1.612784	ดู	-0.01213902
-1.612784	ตัวเอง	0.1127997
-1.612784	ทอย	-0.01213902
-1.612784	ประกัน	-0.01213902
-1.612784	ยอม	-0.01213902
-1.612784	ลูก	0.1127997
-1.612784	ลูกเต๋า	-0.01213902
-1.612784	สร้าง	0.02171925
-1.612784	หนึ่ง	-0.01213902
-1.612784	เกม	0.1127997
-1.612784	เงิน	0.1127997
-1.612784	เทิร์น	0.1127997
-1.612784	เปลี่ยน	-0.01213902
-1.612784	เริ่ม	-0.01213902
-1.612784	แพ้	0.1127997
-1.612784	แหก	-0.01213902
-1.612784	โกวาจี	0.1127997
-1.311754	โฉนด	-0.1882303

\2-grams:
-2.545307	<s> ENG
-0.7707902	<s> ขาย	-0.3177777
-2.545307	<s> จ่าย
-0.9432471	<s> ซื้อ	-0.192839
-2.545307	<s> ดู
-2.545307	<s> ทอย
-2.545307	<s> ประกัน
-2.545307	<s> ยอม
-2.545307	<s> สร้าง
-2.545307	<s> เปลี่ยน
-2.545307	<s> เริ่ม
-2.545307	<s> แหก
-2.545307	<s> โกวาจี
-1.591065	ENG </s>
-1.591065	ENG ENG
-0.1175776	PLACE </s>
-1.591065	ขาย PLACE	0.08980966
-1.591065	ขาย โฉนด
-1.290035	ข้อมูล PLACE
-1.290035	คุก </s>
-1.290035	จ่าย เงิน
-1.591065	ซื้อ PLACE	0.2659009
-1.591065	ซื้อ โฉนด
-1.290035	ดู ข้อมูล
-1.290035	ตัวเอง </s>
-1.290035	ทอย ลูกเต๋า
-1.290035	ประกัน ตัวเอง
-1.290035	ยอม แพ้
-1.290035	ลูก </s>
-1.290035	ลูกเต๋า หนึ่ง
-1.290035	สร้าง PLACE
-1.290035	หนึ่ง ลูก
-1.290035	เกม </s>
-1.290035	เงิน </s>
-1.290035	เทิร์น </s>
-1.290035	เปลี่ยน เทิร์น
-1.290035	เริ่ม เกม
-1.290035	แพ้ </s>
-1.290035	แหก คุก
-1.290035	โกวาจี </s>
-0.2793107	โฉนด </s>

\3-grams:
-0.1497623	ขาย PLACE </s>
-0.2498775	ซื้อ PLACE </s>
-0.2747011	<s> ขาย PLACE
-0.4259687	<s> ซื้อ PLACE

\end\
