
\data\
ngram 1=31
ngram 2=47
ngram 3=0

\1-grams:
-0.4929155	</s>
-99	<s>	-0.2187414
-1.146128	ขาย	-0.07741224
-1.748188	ข้อมูล	-0.07741223
-1.748188	คุก	-0.07741222
-1.748188	จ่าย	-0.07741223
-1.271067	ซื้อ	-0.0774122
-1.748188	ดู	-0.07741223
-1.748188	ตัวเอง	-0.07741222
-1.748188	ทอย	-0.07741223
-1.748188	ที่ดิน	-0.07741222
-1.447158	บ้าน	-0.3784423
-1.748188	ประกัน	-0.07741223
-1.748188	ยอม	-0.07741223
-1.748188	ลูก	-0.07741222
-1.748188	ลูกเต๋า	-0.07741223
-1.748188	สร้าง	-0.07741223
-1.748188	หนึ่ง	-0.07741223
-1.748188	เกม	-0.07741222
-1.748188	เงิน	-0.07741222
-1.748188	เทค	-0.07741223
-1.748188	เทิร์น	-0.07741222
-1.748188	เปลี่ยน	-0.07741223
-1.748188	เริ่ม	-0.07741223
-1.748188	แพ้	-0.07741222
-1.447158	แลนด์มาร์ค	-0.3784423
-1.748188	แหก	-0.07741223
-1.748188	โกวาจี	-0.07741222
-1.447158	โฉนด	-0.3784423
-1.447158	โรงแรม	-0.3784423
-1.748188	โอเวอร์	-0.07741222

\2-grams:
-0.6597506	<s> ขาย
-1.701988	<s> จ่าย
-0.8165734	<s> ซื้อ
-1.701988	<s> ดู
-1.701988	<s> ทอย
-1.701988	<s> ประกัน
-1.701988	<s> ยอม
-1.701988	<s> สร้าง
-1.701988	<s> เทค
-1.701988	<s> เปลี่ยน
-1.701988	<s> เริ่ม
-1.701988	<s> แหก
-1.701988	<s> โกวาจี
-1.150582	ขาย บ้าน
-1.150582	ขาย แลนด์มาร์ค
-1.150582	ขาย โฉนด
-1.150582	ขาย โรงแรม
-0.7490752	ข้อมูล ที่ดิน
-0.3642994	คุก </s>
-0.7490752	จ่าย เงิน
-1.074146	ซื้อ บ้าน
-1.074146	ซื้อ โฉนด
-1.074146	ซื้อ โรงแรม
-0.7490752	ดู ข้อมูล
-0.3642994	ตัวเอง </s>
-0.7490752	ทอย ลูกเต๋า
-0.3642994	ที่ดิน </s>
-0.1450215	บ้าน </s>
-0.7490752	ประกัน ตัวเอง
-0.7490752	ยอม แพ้
-0.3642994	ลูก </s>
-0.7490752	ลูกเต๋า หนึ่ง
-0.7141082	สร้าง แลนด์มาร์ค
-0.7490752	หนึ่ง ลูก
-0.3642994	เกม </s>
-0.3642994	เงิน </s>
-0.7490752	เทค โอเวอร์
-0.3642994	เทิร์น </s>
-0.7490752	เปลี่ยน เทิร์น
-0.7490752	เริ่ม เกม
-0.3642994	แพ้ </s>
-0.1450215	แลนด์มาร์ค </s>
-0.7490752	แหก คุก
-0.3642994	โกวาจี </s>
-0.1450215	โฉนด </s>
-0.1450215	โรงแรม </s>
-0.3642994	โอเวอร์ </s>

\3-grams:

\end\
