
\data\
ngram 1=31
ngram 2=47
ngram 3=0

\1-grams:
-0.4929155	</s>
-99	<s>	-0.09516317
-1.146128	ขาย	0.01725902
-1.748188	ข้อมูล	-0.04186244
-1.748188	คุก	0.1187166
-1.748188	จ่าย	-0.04186244
-1.271067	ซื้อ	-0.0004697628
-1.748188	ดู	-0.04186244
-1.748188	ตัวเอง	0.1187166
-1.748188	ทอย	-0.04186244
-1.748188	ที่ดิน	0.1187166
-1.447158	บ้าน	0.008866578
-1.748188	ประกัน	-0.04186244
-1.748188	ยอม	-0.04186244
-1.748188	ลูก	0.1187166
-1.748188	ลูกเต๋า	-0.04186244
-1.748188	สร้าง	-0.03389351
-1.748188	หนึ่ง	-0.04186244
-1.748188	เกม	0.1187166
-1.748188	เงิน	0.1187166
-1.748188	เทค	-0.04186244
-1.748188	เทิร์น	0.1187166
-1.748188	เปลี่ยน	-0.04186244
-1.748188	เริ่ม	-0.04186244
-1.748188	แพ้	0.1187166
-1.447158	แลนด์มาร์ค	0.008866578
-1.748188	แหก	-0.04186244
-1.748188	โกวาจี	0.1187166
-1.447158	โฉนด	0.008866578
-1.447158	โรงแรม	0.008866578
-1.748188	โอเวอร์	0.1187166

\2-grams:
-0.6532125	<s> ขาย
-2.221414	<s> จ่าย
-0.7781513	<s> ซื้อ
-2.221414	<s> ดู
-2.221414	<s> ทอย
-2.221414	<s> ประกัน
-2.221414	<s> ยอม
-2.221414	<s> สร้าง
-2.221414	<s> เทค
-2.221414	<s> เปลี่ยน
-2.221414	<s> เริ่ม
-2.221414	<s> แหก
-2.221414	<s> โกวาจี
-1.568202	ขาย บ้าน
-1.568202	ขาย แลนด์มาร์ค
-1.568202	ขาย โฉนด
-1.568202	ขาย โรงแรม
-0.9661418	ข้อมูล ที่ดิน
-0.9661418	คุก </s>
-0.9661418	จ่าย เงิน
-1.443263	ซื้อ บ้าน
-1.443263	ซื้อ โฉนด
-1.443263	ซื้อ โรงแรม
-0.9661418	ดู ข้อมูล
-0.9661418	ตัวเอง </s>
-0.9661418	ทอย ลูกเต๋า
-0.9661418	ที่ดิน </s>
-0.5122503	บ้าน </s>
-0.9661418	ประกัน ตัวเอง
-0.9661418	ยอม แพ้
-0.9661418	ลูก </s>
-0.9661418	ลูกเต๋า หนึ่ง
-0.9661418	สร้าง แลนด์มาร์ค
-0.9661418	หนึ่ง ลูก
-0.9661418	เกม </s>
-0.9661418	เงิน </s>
-0.9661418	เทค โอเวอร์
-0.9661418	เทิร์น </s>
-0.9661418	เปลี่ยน เทิร์น
-0.9661418	เริ่ม เกม
-0.9661418	แพ้ </s>
-0.5122503	แลนด์มาร์ค </s>
-0.9661418	แหก คุก
-0.9661418	โกวาจี </s>
-0.5122503	โฉนด </s>
-0.5122503	โรงแรม </s>
-0.9661418	โอเวอร์ </s>

\3-grams:

\end\
